float w1_real[16][8] = {{-0.767,0.855,-0.589,0.262,-0.025,-0.181,0.038,-0.374},
	{1.024,0.418,-0.470,-0.036,0.181,-1.054,-0.379,0.042},
	{-2.778,1.224,1.000,0.801,0.472,0.547,0.511,-0.045},
	{0.377,0.706,-1.072,0.422,0.686,0.154,0.587,0.143},
	{0.670,0.342,-0.360,-0.119,-0.179,0.517,0.377,-0.026},
	{1.082,-1.948,1.292,0.509,0.160,0.246,0.004,0.166},
	{-3.513,1.361,-0.193,-0.430,1.396,-0.423,0.259,0.468},
	{-0.451,0.704,0.766,1.414,0.377,0.038,0.386,0.446},
	{0.938,1.281,1.026,-0.425,-0.326,-0.327,0.505,0.465},
	{-0.810,-0.931,0.605,0.275,-0.139,0.868,0.777,0.425},
	{0.773,-0.445,0.297,-0.577,0.289,0.274,0.665,0.615},
	{2.356,-0.997,1.163,-0.550,-0.581,0.190,0.093,0.308},
	{0.681,0.140,-0.705,0.126,0.017,0.687,-0.129,0.036},
	{1.941,0.303,-0.895,0.770,0.986,-0.065,0.596,0.128},
	{0.912,1.894,1.297,-0.360,0.515,-0.075,0.170,0.285},
	{-0.268, -0.175, 0.208, 0.570, 1.068, 0.323, 0.581, 0.285}};
float w1_imag[16][8] = {{2.622,0.162,0.034,0.737,0.639,-0.091,0.618,-0.221},
	{1.915,1.603,0.365,-0.137,0.876,0.617,0.345,0.721},
	{0.274,1.791,1.323,-0.010,-0.120,1.130,0.922,-0.144},
	{1.384,1.411,-0.010,1.159,0.470,0.028,0.748,1.419},
	{-0.952,0.160,1.619,0.920,1.592,-0.186,0.872,1.008},
	{1.006,1.089,0.198,0.081,1.294,1.714,1.003,0.401},
	{0.897,1.185,0.788,1.546,0.808,1.780,0.296,0.605},
	{0.466,1.178,0.925,0.433,0.369,0.716,0.438,1.712},
	{0.424,1.777,0.485,1.471,0.804,0.883,1.323,0.954},
	{1.314,1.069,0.786,0.794,0.753,0.292,0.778,2.047},
	{1.682,1.215,1.384,-0.036,0.743,0.113,1.230,0.357},
	{1.816,0.874,-0.180,1.567,-0.325,-0.543,-0.050,0.330},
	{0.993,1.888,0.711,0.408,0.739,0.259,0.165,-0.131},
	{0.722,0.685,0.941,1.168,0.198,1.379,0.524,0.630},
	{2.119,0.385,1.627,0.554,1.158,1.523,0.068,1.011},
	{1.566, 0.375, 0.816, 0.832, 1.212, 0.864, 1.271, 1.011}};
float w2_real[8][16] = {{0.494,0.361,-0.456,-0.049,0.036,-0.180,0.148,-0.471,-0.440,-0.251,0.061,0.526,0.473,-0.128,0.604,0.697},
	{0.542,-0.163,0.451,0.092,0.191,-0.912,0.297,0.045,0.240,-0.171,-0.301,-0.140,0.147,0.208,-0.149,0.174},
	{0.030,0.812,-0.334,0.063,0.058,0.642,-0.869,-0.411,-0.105,0.083,0.229,0.771,0.509,0.321,0.190,-0.645},
	{0.542,-0.013,0.025,-0.173,-0.586,0.521,-0.339,0.250,-0.536,0.126,-0.076,0.462,-0.008,0.203,-0.235,0.446},
	{-0.669,-0.240,-0.191,-0.484,0.680,-0.588,-0.284,0.127,0.623,0.458,-0.299,-1.006,-1.096,0.099,-0.644,0.213},
	{-0.052,0.126,0.668,-0.153,0.292,0.444,-0.145,0.024,0.289,-0.583,-0.311,-0.094,0.010,-0.272,0.580,-0.356},
	{0.274,-0.665,0.953,-0.182,-0.681,-0.460,0.757,0.739,0.427,0.262,-0.433,-0.232,-0.215,-0.649,0.169,0.268},
	{-0.060,0.117,0.180,0.087,0.156,0.167,-0.318,-0.601,-0.431,0.295,0.034,0.196,0.022,0.375,-0.729,0.268}};
float w2_imag[8][16] = {{-0.607,-0.151,-1.267,-0.083,-0.233,1.458,-1.539,-0.448,-0.214,0.264,0.214,0.933,0.840,0.817,0.510,-0.267},
	{0.449,0.497,-0.566,-0.525,0.420,-0.302,-0.072,-0.213,-1.086,0.266,1.252,-0.596,-0.016,-0.365,0.909,0.424},
	{-1.374,-0.519,0.306,-0.813,1.225,-1.124,0.015,0.233,1.230,-0.164,-0.432,-1.619,-0.631,0.363,0.094,-0.640},
	{-1.103,1.139,-0.227,0.742,-0.282,-0.072,0.042,-0.080,-0.542,-0.641,0.648,-0.441,1.141,0.495,-0.155,0.091},
	{-0.164,-0.419,0.962,0.435,0.001,-0.055,1.247,-0.510,-1.006,0.977,0.081,-0.396,-0.304,-0.719,-1.233,0.303},
	{-1.184,0.024,-1.184,-0.062,-0.414,-0.487,-0.833,0.397,1.007,0.103,-0.218,-1.935,-0.855,0.132,-0.438,0.511},
	{1.580,1.367,0.879,0.578,-0.871,-0.638,0.025,0.220,-0.065,-0.777,0.569,0.961,0.093,-0.333,0.872,-0.002},
	{0.334, -0.420, 0.399, -0.490, -1.173, 0.810, 0.387, 0.982, 0.701, 0.288, 0.283, -0.473, 0.719, -1.846, 0.244, -0.002}};
