float w1_real[16][8] = {{-0.767187,0.854909,-0.589061,0.261694,-0.024571,-0.180952,0.037686,-0.374005},
	{1.024488,0.417943,-0.470112,-0.035965,0.180763,-1.054029,-0.379395,0.041865},
	{-2.778410,1.223708,1.000389,0.801073,0.472402,0.546711,0.510892,-0.045398},
	{0.377210,0.706141,-1.071775,0.421897,0.685928,0.153520,0.586840,0.142758},
	{0.669737,0.341791,-0.359695,-0.119486,-0.178846,0.517053,0.376973,-0.025825},
	{1.081824,-1.947971,1.292253,0.508755,0.160492,0.245963,0.004499,0.166330},
	{-3.512732,1.361248,-0.193401,-0.429982,1.395546,-0.422673,0.259292,0.467768},
	{-0.451135,0.703870,0.765809,1.413896,0.376654,0.038423,0.385716,0.445954},
	{0.937574,1.281350,1.026486,-0.424568,-0.325610,-0.327104,0.504731,0.465256},
	{-0.809776,-0.931363,0.605059,0.274610,-0.138942,0.867825,0.776919,0.424845},
	{0.772761,-0.444825,0.297073,-0.576998,0.289027,0.274343,0.665289,0.615371},
	{2.355585,-0.996786,1.162988,-0.550172,-0.580612,0.189552,0.093159,0.307910},
	{0.681207,0.140082,-0.705162,0.125885,0.017191,0.687392,-0.129321,0.035661},
	{1.941425,0.303498,-0.894949,0.770146,0.985917,-0.064933,0.596268,0.127669},
	{0.912131,1.893652,1.297108,-0.359725,0.514539,-0.074564,0.169698,0.284554},
	{-0.267726, -0.175227, 0.207839, 0.570165, 1.067911, 0.323329, 0.581123, 0.284554}};
float w1_imag[16][8] = {{2.621811,0.161691,0.033858,0.737179,0.639215,-0.091217,0.617554,-0.220944},
	{1.915470,1.602544,0.365466,-0.137107,0.876039,0.616952,0.345499,0.721039},
	{0.273618,1.790568,1.323200,-0.010074,-0.120493,1.130029,0.921935,-0.144289},
	{1.384162,1.411190,-0.009713,1.158868,0.469770,0.027591,0.748110,1.418705},
	{-0.952406,0.160488,1.619048,0.920130,1.591651,-0.185989,0.871876,1.007549},
	{1.005886,1.089217,0.197998,0.081318,1.294200,1.714293,1.002536,0.401152},
	{0.896930,1.184750,0.787597,1.546489,0.807988,1.779629,0.295722,0.605379},
	{0.466447,1.178251,0.924901,0.432689,0.369120,0.715749,0.437716,1.711740},
	{0.423863,1.776526,0.485150,1.470559,0.804048,0.882720,1.322722,0.953562},
	{1.313849,1.068835,0.786033,0.793647,0.752513,0.292066,0.778060,2.046621},
	{1.681987,1.215357,1.384469,-0.036197,0.742927,0.113460,1.229752,0.357128},
	{1.815692,0.873617,-0.180225,1.566730,-0.325289,-0.542586,-0.050465,0.329991},
	{0.992768,1.888391,0.710827,0.408487,0.739404,0.259223,0.164904,-0.131142},
	{0.721632,0.685058,0.941427,1.167669,0.197777,1.378739,0.524111,0.630417},
	{2.118686,0.385111,1.626833,0.554317,1.157862,1.523493,0.067544,1.011025},
	{1.565541, 0.374972, 0.815536, 0.832482, 1.211557, 0.864370, 1.271097, 1.011025}};
float w2_real[8][16] = {{0.494294,0.360790,-0.455851,-0.049290,0.035507,-0.179560,0.148284,-0.471094,-0.440070,-0.250529,0.060926,0.525554,0.472993,-0.128477,0.604307,0.697208},
	{0.542230,-0.162937,0.450797,0.092175,0.191171,-0.912425,0.296832,0.045327,0.239507,-0.170699,-0.300957,-0.139534,0.147293,0.208106,-0.149394,0.174373},
	{0.030162,0.812247,-0.333582,0.062976,0.058231,0.642333,-0.869408,-0.411043,-0.104558,0.083290,0.228521,0.770509,0.508831,0.321138,0.190083,-0.644843},
	{0.541872,-0.012641,0.024916,-0.172644,-0.585545,0.521406,-0.338833,0.249621,-0.536482,0.125626,-0.076400,0.462308,-0.007972,0.202725,-0.235373,0.446310},
	{-0.668766,-0.240424,-0.191009,-0.483621,0.680317,-0.587568,-0.284091,0.126693,0.623371,0.457503,-0.299388,-1.005832,-1.095657,0.098629,-0.643788,0.212748},
	{-0.052266,0.125837,0.667976,-0.153343,0.292452,0.443660,-0.144954,0.024447,0.288603,-0.583335,-0.310504,-0.094433,0.009909,-0.272109,0.580399,-0.356445},
	{0.273861,-0.664542,0.952525,-0.181958,-0.680581,-0.459657,0.756587,0.739216,0.427001,0.262094,-0.433465,-0.232006,-0.214858,-0.648743,0.168754,0.268109},
	{-0.059700,0.116622,0.179641,0.086944,0.155818,0.167112,-0.318118,-0.600637,-0.431057,0.294589,0.033826,0.195910,0.021667,0.375403,-0.729101,0.268109}};
float w2_imag[8][16] = {{-0.606865,-0.150924,-1.267400,-0.083007,-0.232667,1.457630,-1.538879,-0.447915,-0.214113,0.264306,0.214348,0.932858,0.840027,0.817312,0.510020,-0.266884},
	{0.448588,0.496631,-0.566322,-0.525328,0.420258,-0.301959,-0.072455,-0.212998,-1.086375,0.266032,1.251874,-0.595891,-0.016371,-0.364911,0.909239,0.424421},
	{-1.373539,-0.518976,0.306113,-0.813415,1.225040,-1.124131,0.015136,0.232685,1.230042,-0.164106,-0.431625,-1.619363,-0.631455,0.362752,0.094001,-0.640411},
	{-1.102942,1.138813,-0.227247,0.742227,-0.282473,-0.071544,0.042028,-0.079662,-0.541648,-0.640533,0.647667,-0.441478,1.141441,0.495055,-0.155466,0.091367},
	{-0.163840,-0.419054,0.962424,0.434658,0.001476,-0.055474,1.247185,-0.510208,-1.006457,0.976960,0.081457,-0.395670,-0.304067,-0.719165,-1.233299,0.303485},
	{-1.183795,0.024212,-1.184195,-0.061856,-0.414424,-0.487396,-0.833457,0.397400,1.007105,0.103299,-0.218303,-1.935418,-0.855314,0.132146,-0.437873,0.511487},
	{1.579679,1.367406,0.879466,0.578256,-0.870941,-0.637938,0.024603,0.219516,-0.065285,-0.776840,0.569424,0.961181,0.092874,-0.332597,0.872472,-0.002060},
	{0.333586, -0.420086, 0.398672, -0.489542, -1.172809, 0.810176, 0.386907, 0.982278, 0.701253, 0.287766, 0.283482, -0.473334, 0.719040, -1.846357, 0.244472, -0.002060}};
