float w1_real[16][8] = {{1.132624,0.056654,0.785349,0.635003,-0.493186,0.176073,0.024671,-0.155040},
	{-2.373356,0.434982,1.500596,1.475650,-0.259193,-0.956298,-0.483377,-0.953031},
	{0.072188,1.326642,0.252131,-0.902212,-0.110117,-0.029493,0.257297,0.227291},
	{0.984710,0.290724,0.674572,-0.777190,-0.606917,-0.225430,0.040114,0.337720},
	{-0.355106,-0.096829,0.739179,0.021450,-0.221637,0.304687,0.891747,-0.197739},
	{-1.131017,-2.380561,0.687210,-0.132834,0.734246,0.445131,-0.195640,0.298120},
	{0.730580,1.565107,-0.073648,0.247051,1.069604,0.000741,-0.325653,0.045457},
	{2.749241,-0.926711,1.079926,-0.495343,0.134564,0.598515,-0.021523,-0.002604},
	{0.259057,2.367709,1.031024,-1.011783,-0.275047,-0.658178,0.481483,0.456485},
	{0.126340,0.291675,-0.072394,0.758727,1.143844,0.475093,-0.336214,0.044844},
	{3.988077,-2.595914,-0.111178,-0.593205,-0.043727,-0.250340,-0.135170,-0.004503},
	{-3.132504,1.838856,1.954166,-0.424290,1.324642,1.470944,0.729973,1.045333},
	{2.141054,-1.920115,-0.703616,0.412452,0.475986,0.367366,0.177875,0.168713},
	{-0.687735,1.099560,-1.829922,-0.141830,-0.166646,0.258694,0.590202,0.076893},
	{0.934335,-0.267854,0.234861,0.231317,0.688142,0.570048,-0.057003,0.838454},
	{1.976203, 0.645482, 1.287880, 0.074267, 0.191137, 0.339202, -0.347642, 0.838454}};
float w1_imag[16][8] = {{1.899117,0.052417,0.657041,0.928957,0.783405,0.375843,0.804829,-0.085703},
	{2.028684,0.118845,-0.522938,1.784295,1.585257,1.656308,2.900151,1.178126},
	{1.796626,1.437227,2.134836,-0.104552,0.445044,0.502940,0.213486,0.521819},
	{1.631913,1.868763,0.052995,0.649017,1.109873,0.980098,0.046558,0.514035},
	{-0.157337,1.177786,0.366506,1.256441,0.406212,1.058164,0.549634,0.272238},
	{1.485063,1.062387,0.761677,1.706689,0.117100,0.915271,0.327822,0.798745},
	{0.523347,1.175508,0.895586,0.849566,0.369384,0.622189,0.956024,0.398051},
	{0.171821,1.368118,1.180110,0.946067,0.810937,0.763234,0.582981,0.880745},
	{1.202074,-0.230159,0.007063,0.628408,1.135424,0.120428,0.896359,0.332526},
	{1.938987,0.599230,-0.971138,0.765048,0.863186,1.232251,1.363046,0.417187},
	{-0.589393,-0.669670,-0.807823,-1.925350,0.505479,1.378965,1.893143,0.518180},
	{2.342915,1.146314,-0.169152,1.447493,0.411871,2.261674,2.381848,0.527902},
	{2.496338,1.709195,-0.922063,0.013858,0.704384,-0.406918,0.099626,0.322999},
	{1.363665,0.183950,0.153282,1.471834,0.501757,0.407226,-0.141452,1.026903},
	{0.288443,1.090969,1.231105,0.938970,1.613417,0.387852,0.968735,0.991706},
	{0.286432, 0.502092, 0.629734, 1.664225, 0.053781, 0.739758, 0.462123, 0.991706}};
float w2_real[8][16] = {{0.159060,-0.240688,0.716896,-0.086620,-0.666908,0.511053,-0.247496,-0.268042,0.507552,0.858693,-0.330137,0.180310,0.240025,-0.256804,0.044531,-0.223846},
	{0.411874,0.052663,0.148758,-0.003860,0.303474,-0.531166,0.290776,-0.807933,0.067736,0.321982,-0.012054,0.252928,-0.533212,0.474842,-0.148814,-0.565120},
	{-0.020464,0.253715,-0.164119,0.003144,0.258547,0.271718,-0.065900,-0.618487,-0.394335,0.228003,-0.992855,0.879457,0.018041,-0.309105,-0.194369,-0.048955},
	{0.425458,0.263139,-0.343109,-0.451683,1.015267,-0.045210,-0.662894,0.129942,-1.295831,-0.363361,0.074407,0.141362,0.252732,0.105611,0.279847,0.086458},
	{0.327997,-0.276908,0.600064,0.588864,0.216360,0.475460,0.221087,-0.290357,0.468822,0.808927,-0.477601,0.235920,0.490494,-0.712305,-0.683679,-0.000340},
	{0.113293,0.134673,0.455162,-0.090136,0.138517,-0.275343,0.019367,0.629683,0.123423,0.543956,-0.006456,0.222447,-0.266533,-0.788501,-0.337650,0.022560},
	{-0.006888,0.209348,-0.079434,-0.803231,-0.097864,0.528940,0.081788,-0.880945,-0.123613,-0.004879,-0.812169,0.790135,-0.466042,-0.131356,0.142647,-0.205125},
	{0.257170,-0.045919,0.060491,-0.503593,-0.455487,0.764446,-0.025271,-0.139150,0.112407,0.306108,-0.067648,0.071569,0.259375,-0.302721,0.159183,-0.205125}};
float w2_imag[8][16] = {{1.000440,-0.581679,-0.391950,0.774098,-0.065535,-0.355145,-0.878735,1.453465,-0.668036,0.067130,0.906998,-0.922978,0.211814,-0.492237,0.356695,0.952913},
	{1.136790,-0.044585,1.321152,-0.296198,-0.785711,0.341590,-0.259810,-1.176129,0.349328,-0.027109,0.227003,-0.153528,-0.375583,-0.626467,1.231786,-0.315259},
	{0.558194,-0.374202,1.366156,0.631990,-0.970928,0.862486,0.291687,-0.845344,1.809153,1.463656,-0.571377,0.116337,0.947348,-0.110691,-1.656575,0.098586},
	{-0.344619,0.277180,0.310644,0.938615,0.310072,0.652094,-0.250505,-0.250793,0.049416,-0.249256,-0.137855,0.688493,-0.636633,-1.311839,-0.189020,-0.352429},
	{0.709844,-0.511924,0.514157,0.902009,-0.179991,-1.287783,0.973611,0.873833,0.257255,0.175801,0.606685,-1.038434,-0.401210,-0.623843,-0.498227,1.351695},
	{-0.757889,0.096145,-0.572484,0.383300,-1.677681,0.003002,-0.437637,0.250719,-0.441975,0.421955,0.710237,-0.031468,-2.192548,-0.143649,0.343235,0.026666},
	{0.770957,-0.491195,0.414401,0.439232,-0.404959,1.844874,-0.534488,-0.627953,0.863748,1.002442,-0.236720,-0.093761,1.903401,-0.303923,-0.542065,-0.503604},
	{-0.908647, -0.532112, 0.979661, 0.790373, 0.425273, -0.864899, 0.632721, 0.422818, -1.145890, 1.549375, 0.269948, -0.836670, -0.215177, 0.342815, 0.567643, -0.503604}};
