float w1_real[16][8] = {{5.033726,-1.208601,1.026529,0.156621,0.055505,0.431656,0.331760,0.125924},
	{0.521517,-0.327663,-0.798156,0.421564,0.707939,0.413511,0.205051,0.413820},
	{5.497027,0.216286,0.743582,0.542175,-0.404821,0.374702,-0.561847,-0.888228},
	{1.378055,-0.813163,0.443946,0.449105,0.454746,0.685074,0.463002,0.234121},
	{-1.443506,0.873604,1.458776,1.784037,0.057775,-0.029747,0.223216,-0.323325},
	{3.375796,2.500276,0.683843,0.288741,0.228861,0.077398,0.339314,0.679165},
	{-0.033684,-0.256162,0.728560,-0.221905,-0.136421,0.346957,0.456808,0.695501},
	{-0.731977,0.751042,-0.376643,-0.051097,0.849138,0.469786,0.556087,0.492083},
	{1.860839,0.868168,-1.191017,0.768659,0.035131,-0.378740,-0.392452,-0.150021},
	{0.945549,-1.701617,0.747552,0.017445,0.185931,0.802735,0.391631,0.334184},
	{0.549021,-0.833362,1.544682,-0.435112,-0.530300,0.321936,-0.223264,-0.021325},
	{1.625562,-0.473912,1.358907,-0.652283,-0.047264,-0.342123,-0.286840,0.022874},
	{-0.337534,-1.126136,0.618866,-0.047751,0.564716,0.194375,-0.103767,0.063401},
	{-0.098718,1.551583,0.570690,0.296361,0.385645,-0.325496,0.961927,0.173021},
	{0.502437,-0.307177,-0.471509,0.265895,0.031982,-0.099350,-0.428960,-0.741258},
	{-0.833673, -0.072222, -0.433840, -0.027973, -0.241537, -0.062951, 0.512753, -0.741258}};
float w1_imag[16][8] = {{-0.426955,0.006708,2.428775,1.917254,2.206153,1.331370,1.014533,0.567297},
	{-0.581309,2.524145,0.456004,0.085011,1.320171,0.382017,1.100670,0.729860},
	{0.607152,2.017497,1.283075,1.116631,0.847769,0.844253,1.334588,1.907301},
	{0.503082,0.651239,-0.100981,0.544679,0.230326,0.826320,0.813440,1.207533},
	{-0.543154,0.960202,1.359791,2.368018,1.624104,2.201986,2.137290,0.059231},
	{-0.093933,0.666682,0.660422,1.779955,0.506132,0.060207,0.372311,0.208348},
	{-0.400745,0.467991,1.274587,0.451372,1.519648,-0.245576,0.526004,0.600516},
	{0.477761,0.975274,0.042976,1.954880,1.147368,0.056642,1.290738,1.078945},
	{2.697778,2.288436,0.943953,-0.153051,0.882930,0.214144,0.285699,0.738872},
	{2.251079,0.496720,0.184915,0.648555,0.309207,-0.567154,0.300911,-0.274821},
	{-1.157551,0.811083,0.366028,0.580987,-0.251813,0.231113,0.321430,0.681619},
	{2.010220,0.382280,0.061292,0.711971,0.994646,0.491883,0.377845,0.981401},
	{1.254795,0.615895,1.155719,1.076104,0.597611,0.006553,0.114005,0.481208},
	{0.853455,1.243743,1.009308,0.470393,1.008029,1.026359,1.281441,1.180040},
	{-1.131954,0.454805,1.483695,0.814206,0.779961,0.249722,-0.093517,1.160871},
	{0.869334, 1.812490, 0.666166, 0.222144, -0.204800, 0.589962, -0.477191, 1.160871}};
float w2_real[8][16] = {{0.251582,-0.891088,0.057916,0.411024,0.306792,-0.143621,-0.361207,0.294428,0.367519,0.693910,-0.734460,0.463102,0.675113,-0.574219,-0.389657,-0.676468},
	{0.120789,-0.002269,-0.413177,-0.031949,0.086324,-0.076280,-0.616821,0.678576,0.195893,-0.498257,-0.719236,-0.434749,-0.143753,0.162785,0.370322,0.323838},
	{0.771862,0.858940,0.081003,-0.039483,-0.216412,0.312647,-0.164719,-0.178253,0.300553,-0.002435,0.566322,0.603721,-0.110912,-0.548720,-0.047396,0.228861},
	{0.108310,-0.093601,-0.389655,0.101230,0.026466,-0.330329,0.272115,-0.219455,0.124773,0.037282,-0.264709,-0.086146,0.618870,0.037130,-0.073594,-0.356188},
	{0.178333,0.089233,-0.087931,-0.251681,0.172530,0.174564,-0.319533,0.210963,0.382919,0.734524,-0.355103,0.649835,0.340076,-0.392021,-0.500455,0.748196},
	{0.605628,-0.482458,-0.361550,0.317333,0.188275,-0.356973,-0.409888,0.276738,-0.098861,0.280503,0.170823,0.423929,-0.111467,0.124484,-0.082233,-0.321576},
	{0.885629,0.575036,0.038873,0.089923,-0.257367,0.552235,-0.491760,0.038145,-0.138374,0.576546,-0.116763,0.657114,-0.076092,-0.445074,-0.150556,-1.012475},
	{0.322331,0.168625,-0.196724,0.272903,0.154943,-0.349123,0.021552,-0.191051,-0.683092,0.286373,-0.033202,-0.277409,0.029340,-0.256536,0.685894,-1.012475}};
float w2_imag[8][16] = {{1.766650,-0.555982,0.147283,0.743608,-0.639924,0.499898,-0.197076,-1.011860,0.190445,0.573408,0.494017,0.477713,-0.400378,-0.542145,-0.193579,-0.321992},
	{0.618645,-0.446750,-0.730420,-0.084125,0.061307,-0.418681,0.721252,-0.605247,0.945222,0.363825,-0.667454,0.236032,0.167798,0.610233,-0.256841,-1.295858},
	{0.669944,0.348783,-0.066779,-1.246993,-0.616201,0.569274,0.666333,-0.192616,-1.140802,-1.988156,0.844536,-1.048879,-0.897717,0.350118,1.412523,-0.285290},
	{0.930052,1.822768,-0.035907,-0.073864,-0.852218,0.134962,-0.600542,-0.348021,0.743138,-0.583394,-0.175285,-0.518888,-0.844268,-0.112848,-0.015760,0.613505},
	{1.052229,-0.737465,0.448506,-0.109452,-0.808816,1.567343,0.244984,-0.555820,0.758276,-0.612879,0.426491,0.398978,-0.843501,0.310725,-0.687471,-0.417040},
	{0.681217,-0.386000,-0.531798,0.179999,-0.519982,-0.544825,-0.318276,0.015815,-0.409424,-1.591427,0.390749,-0.480106,-0.297178,0.651145,-0.424254,-2.260547},
	{1.046092,0.726144,-0.573910,0.403685,-0.260684,-0.790307,0.831793,-0.862723,-1.307323,-1.017119,1.022525,-0.492319,-0.566128,-0.853043,1.628871,-0.322522},
	{-0.577543, 0.994601, -0.207325, -0.425027, 0.255444, -0.374349, 0.531199, -1.392050, -0.458527, -0.281757, 1.039313, 0.648346, -0.099687, 0.941292, -0.663861, -0.322522}};
