double w1_real[50][20] = {{1.351,-0.569,0.231,0.282,0.506,1.184,0.819,0.690,0.443,0.301,0.897,0.510,0.020,0.299,0.423,-0.252,0.226,-0.062,0.250,0.185},
	{-1.037,-0.006,0.103,-0.058,0.674,0.830,0.193,0.788,0.551,0.833,0.197,0.718,0.010,0.701,0.686,0.758,0.190,-0.011,0.352,-0.098},
	{0.840,0.628,0.236,0.408,0.002,0.501,0.580,0.159,0.549,0.087,0.502,0.243,0.835,-0.090,-0.033,0.049,0.475,0.132,0.284,0.647},
	{-0.070,-0.014,0.564,0.792,0.421,0.559,0.548,0.754,0.788,0.923,0.163,0.695,0.068,0.392,0.274,0.281,0.714,0.457,0.659,0.399},
	{-0.047,1.421,0.962,-0.150,-0.022,0.147,0.279,0.556,0.852,0.397,0.316,0.467,0.458,0.557,0.867,-0.094,0.081,0.789,0.624,0.489},
	{0.359,-0.607,0.524,0.366,0.023,0.309,-0.167,0.524,0.142,-0.031,-0.062,0.141,-0.610,-0.178,-0.165,0.106,0.043,-0.181,-0.203,-0.041},
	{0.526,0.819,0.454,0.495,0.174,0.460,0.910,0.812,0.407,0.283,0.184,0.363,0.082,0.854,0.062,0.698,0.973,0.862,0.241,0.237},
	{-0.947,-0.527,-0.537,0.930,0.820,0.106,0.720,-0.031,0.645,-0.164,0.594,0.055,0.347,0.550,0.378,0.173,0.354,0.862,0.747,0.134},
	{0.329,-0.338,-0.052,0.507,0.004,0.175,0.165,0.198,0.490,0.597,0.318,0.732,0.352,0.247,0.516,0.185,0.727,0.285,0.649,0.891},
	{0.894,0.513,-0.087,0.393,-0.303,0.849,-0.056,0.106,0.101,0.612,0.426,0.392,0.336,0.588,0.256,0.789,0.097,0.320,0.277,-0.085},
	{1.311,-0.208,0.525,0.115,0.177,0.879,0.008,0.806,0.801,0.500,0.336,0.647,0.366,0.798,0.840,0.531,0.410,0.850,0.498,0.065},
	{1.527,0.466,-1.043,0.731,0.449,-0.512,-0.356,0.019,-0.526,0.269,0.092,0.002,0.357,0.157,-0.051,-0.224,0.529,0.028,-0.149,0.797},
	{-0.777,-0.526,1.491,0.452,0.257,0.666,0.481,0.813,0.291,0.305,0.239,-0.112,0.536,0.056,0.769,0.535,0.582,0.111,0.330,0.164},
	{0.660,0.751,-0.333,0.762,0.319,0.545,0.189,0.692,0.342,0.078,0.672,0.257,0.165,0.427,0.433,0.347,-0.139,0.729,0.724,-0.260},
	{0.120,-0.757,-0.191,0.066,0.283,0.191,0.415,0.827,0.919,1.131,0.869,0.426,0.400,1.301,0.071,0.613,0.052,0.676,0.355,0.380},
	{1.996,0.578,0.601,0.693,0.661,0.299,1.059,0.895,0.945,0.298,0.124,0.277,1.021,0.825,0.625,0.523,0.619,0.822,-0.151,0.040},
	{0.634,-0.197,-0.260,0.738,0.254,0.065,0.738,0.946,0.798,0.143,0.667,0.388,0.130,0.763,1.029,0.594,1.041,0.469,0.942,0.646},
	{0.512,0.939,-0.441,0.271,0.410,-0.227,0.605,0.052,0.759,0.710,0.228,-0.081,0.553,0.128,0.321,0.514,0.199,0.168,0.782,0.690},
	{1.239,0.180,0.823,0.810,1.124,0.124,0.640,0.398,0.074,0.746,0.369,0.346,0.571,-0.069,0.816,0.474,0.551,0.039,1.218,0.792},
	{-0.121,0.318,0.740,0.793,0.302,0.552,0.521,0.190,0.274,0.730,1.070,0.361,0.243,0.625,0.233,0.247,0.091,0.222,0.076,0.610},
	{1.671,-0.207,-0.547,0.350,0.832,0.051,-0.034,0.338,0.026,0.067,0.344,0.018,0.085,0.286,0.092,0.226,-0.226,1.055,0.323,0.321},
	{0.947,0.219,-0.512,-0.424,0.017,0.551,0.798,1.443,0.462,0.363,0.228,0.309,0.454,0.536,0.945,0.557,0.061,0.225,0.363,0.481},
	{-0.110,-0.785,0.872,0.283,0.334,0.080,0.145,0.380,0.896,0.988,0.448,0.441,0.285,0.667,0.560,0.205,0.500,0.690,0.442,0.220},
	{0.073,0.294,0.778,0.874,0.896,-0.072,0.817,0.867,1.095,1.049,0.378,0.640,0.636,0.090,0.569,0.202,0.316,0.880,0.904,-0.348},
	{0.018,0.860,0.656,0.947,0.671,0.847,0.490,0.324,0.234,0.279,0.213,0.386,0.969,0.104,0.253,0.994,0.484,1.047,0.625,-0.051},
	{-0.734,0.373,0.690,0.577,0.416,0.096,0.156,0.366,0.618,0.205,0.460,0.382,0.062,0.700,0.533,0.772,0.174,0.673,0.540,-0.448},
	{-0.494,0.137,-0.153,0.163,1.010,0.226,0.497,1.150,0.751,0.335,-0.276,0.105,0.907,0.529,-0.284,0.189,0.609,0.241,0.790,0.006},
	{0.793,0.012,0.767,0.583,0.039,0.215,0.070,0.839,0.376,0.006,0.419,0.793,0.809,0.186,0.916,0.563,0.946,0.266,0.596,0.491},
	{-0.312,0.400,-0.089,0.020,0.306,0.467,0.237,0.631,0.442,0.958,0.071,0.957,0.490,0.702,1.035,0.430,0.647,0.449,0.930,0.882},
	{-0.842,0.632,0.100,0.594,0.964,0.423,0.831,0.865,1.261,0.293,0.277,0.622,0.524,-0.154,0.327,0.374,-0.259,-0.130,0.508,-0.322},
	{-1.071,-0.176,-0.184,0.524,0.407,0.731,0.862,0.122,0.484,0.513,0.712,0.992,1.062,0.243,0.476,0.311,0.377,0.273,0.375,-0.232},
	{-0.430,0.309,0.450,-0.721,-0.051,-0.496,0.658,-0.293,0.294,-0.067,0.357,-0.303,0.279,-0.048,0.051,-0.288,-0.034,0.445,0.446,0.437},
	{0.241,0.904,0.313,0.136,1.288,0.719,0.054,0.123,1.033,0.600,0.364,-0.105,0.585,1.005,0.769,0.306,0.258,0.289,0.101,0.109},
	{0.806,0.987,-0.119,0.616,0.803,-0.139,0.789,0.507,0.658,0.367,0.618,0.922,0.159,0.523,0.763,0.328,0.579,0.112,0.210,-0.220},
	{0.584,0.299,0.060,0.958,0.468,1.083,0.509,0.039,0.643,0.256,-0.207,0.456,0.256,0.665,0.568,0.246,0.571,0.647,0.766,0.089},
	{0.827,1.007,0.761,0.540,0.683,0.758,0.185,0.460,0.504,1.026,0.192,0.559,0.647,0.718,0.237,0.437,0.672,0.661,0.070,-0.043},
	{0.406,0.418,0.288,1.026,-0.047,0.376,0.352,0.510,0.578,-0.345,0.611,0.070,0.614,0.523,0.427,0.199,0.220,0.480,-0.004,0.363},
	{0.724,0.824,0.372,0.814,0.690,0.122,0.391,0.110,0.916,1.023,0.212,0.101,0.688,0.974,0.007,-0.274,-0.002,-0.071,0.141,0.691},
	{-0.202,-0.610,1.195,0.189,0.818,0.161,0.123,0.866,0.703,0.224,0.715,0.688,0.645,0.060,0.262,0.961,0.173,0.762,0.198,0.229},
	{1.514,0.051,-0.054,0.082,-0.173,-0.062,0.193,0.125,0.806,0.226,0.833,0.624,0.505,0.502,0.644,0.523,0.244,0.596,0.306,0.807},
	{-0.700,1.034,-0.282,0.491,0.035,0.328,0.643,0.676,0.664,1.037,0.417,0.794,0.795,0.718,0.465,0.244,0.952,0.044,0.740,0.161},
	{-0.626,1.361,1.144,0.802,0.921,0.812,0.663,0.464,0.309,0.262,0.640,0.675,0.564,0.579,0.141,0.601,0.001,0.088,0.277,0.369},
	{1.378,-0.074,0.453,0.351,-0.166,0.226,-0.066,-0.147,0.366,0.565,0.087,0.367,-0.173,0.592,-0.301,0.232,-0.021,0.254,0.704,-0.597},
	{0.599,1.035,0.306,0.890,0.486,0.881,0.519,0.246,1.176,0.517,1.045,0.541,0.074,0.508,0.275,0.503,0.091,0.985,0.605,0.311},
	{0.148,-0.318,-0.034,0.801,0.348,0.328,0.036,0.695,0.643,0.750,-0.523,0.624,0.375,0.884,0.608,0.500,0.306,0.038,0.690,-0.085},
	{0.424,1.562,0.925,-0.199,0.893,0.196,0.768,0.153,0.373,0.571,0.509,-0.088,0.081,0.548,0.097,0.261,0.598,0.742,0.096,0.418},
	{1.341,-0.535,0.072,0.121,0.113,0.940,1.188,0.513,0.652,0.743,0.423,0.544,0.292,0.048,1.045,0.397,0.647,0.481,0.602,0.392},
	{0.883,0.213,0.968,-0.004,0.614,0.196,-0.053,0.968,0.616,0.591,0.886,0.602,0.389,0.616,0.149,0.581,0.467,0.091,0.478,0.250},
	{-1.970,0.660,-0.609,0.098,0.440,0.365,0.124,0.324,0.175,-0.140,0.385,0.275,0.637,0.421,-0.033,0.816,0.369,0.933,0.271,0.736},
	{0.086, -0.369, 0.196, 0.612, 0.907, 0.742, 0.285, 0.617, 0.390, 0.682, 0.451, 0.373, 0.571, 0.698, 0.792, 0.684, 0.247, 0.945, -0.237, 0.736}};
double w1_imag[50][20] = {{0.874,0.532,-0.073,0.828,-0.145,0.311,0.507,0.135,0.361,0.308,0.914,1.224,0.397,0.364,0.375,0.832,0.944,0.735,0.885,0.555},
	{0.857,0.164,0.403,0.413,0.512,0.464,1.005,1.038,0.574,0.059,0.507,0.598,1.305,0.549,0.348,0.682,0.581,0.397,0.171,0.319},
	{0.498,0.584,1.027,0.599,0.815,1.029,0.416,1.031,0.400,0.054,0.757,1.011,0.662,0.799,0.566,0.527,0.573,0.137,0.846,1.186},
	{0.613,0.633,0.671,0.432,0.428,0.764,0.528,0.041,0.278,0.740,0.997,1.101,0.425,0.471,0.464,0.032,0.523,0.306,0.994,0.874},
	{0.781,0.955,0.311,0.282,0.756,1.009,0.772,0.674,0.197,0.432,0.321,0.509,0.349,0.413,0.459,1.224,0.220,0.904,0.743,0.247},
	{1.447,1.335,0.621,0.543,0.933,0.558,0.441,0.662,0.334,0.203,0.448,0.209,0.392,0.055,0.013,0.262,-0.243,0.238,0.531,0.261},
	{0.981,0.130,0.371,0.407,0.356,1.138,0.955,0.928,0.510,0.714,0.389,0.916,0.611,0.058,0.919,0.890,0.767,0.212,0.527,0.649},
	{0.713,0.885,0.801,0.347,0.521,0.798,0.974,0.471,0.180,0.752,0.315,0.798,0.500,0.752,1.013,1.150,0.443,0.726,1.048,1.000},
	{0.755,0.690,1.233,0.330,0.544,0.927,0.323,0.764,0.433,0.605,0.336,0.818,0.131,0.765,0.521,0.384,0.876,0.285,1.216,0.864},
	{1.179,0.102,0.504,0.191,0.327,0.558,0.607,0.294,0.364,0.256,0.689,0.103,0.257,0.087,0.646,0.915,0.907,0.351,0.765,0.534},
	{0.842,0.711,1.165,0.601,0.634,0.584,0.744,0.315,0.498,1.087,0.824,0.994,0.759,0.553,0.648,0.735,0.538,0.499,0.781,0.673},
	{1.867,1.994,0.232,0.795,0.638,1.487,0.871,0.189,-0.052,0.147,0.430,0.638,-0.096,0.041,0.811,-0.140,0.670,0.150,0.252,0.343},
	{1.641,0.461,0.425,0.440,0.104,1.305,-0.163,1.024,0.007,-0.133,1.055,0.149,0.392,0.681,0.742,0.151,0.335,0.864,0.425,0.341},
	{0.069,1.033,0.117,0.164,0.156,0.208,0.670,0.237,0.601,0.186,0.046,0.354,0.163,0.362,0.856,0.426,0.727,0.145,0.949,0.825},
	{0.078,1.718,0.589,0.529,0.446,0.820,0.188,0.832,0.666,0.622,0.949,1.139,0.849,0.291,0.802,0.425,0.803,0.021,0.006,0.895},
	{0.630,1.118,0.924,0.308,0.895,0.150,0.695,0.452,0.681,0.684,0.911,0.678,0.881,0.149,0.747,0.684,0.185,0.811,0.566,0.776},
	{0.026,0.969,1.151,0.336,0.774,0.681,0.747,0.037,0.219,0.311,0.124,0.441,0.586,0.327,0.301,1.020,0.594,-0.134,0.157,0.988},
	{1.081,0.594,0.439,0.625,0.173,0.195,0.681,0.833,0.863,0.072,0.516,0.168,0.446,0.621,0.387,0.223,0.083,0.365,0.746,0.252},
	{1.194,1.391,0.769,0.696,0.321,0.597,0.370,0.642,0.006,0.394,1.103,0.951,0.844,0.700,0.683,0.862,0.384,0.907,1.177,0.496},
	{0.438,0.871,1.095,0.218,0.384,0.467,0.539,0.172,-0.545,0.748,0.407,0.544,1.033,0.825,0.568,0.797,0.421,0.899,1.400,0.841},
	{2.067,0.763,0.956,-0.145,0.501,0.496,0.037,0.443,0.348,0.021,0.340,0.725,0.406,0.235,0.627,0.375,0.016,0.647,0.269,0.817},
	{1.113,0.963,0.865,0.589,1.015,0.270,1.044,0.344,0.893,0.232,1.162,0.530,0.439,-0.100,0.845,0.514,0.319,0.781,0.638,0.498},
	{1.189,0.839,1.178,0.285,0.444,0.079,0.503,0.421,1.022,0.269,0.838,0.597,0.789,0.022,0.404,0.922,0.345,0.441,0.099,0.745},
	{0.871,0.563,0.653,0.695,0.445,1.004,0.538,0.502,0.098,0.596,0.709,0.115,1.112,0.848,0.586,0.440,0.806,0.905,0.487,1.107},
	{0.696,1.232,0.911,0.337,0.592,0.883,1.049,0.798,0.776,0.844,0.534,0.147,0.761,0.378,0.757,0.255,0.536,-0.127,0.315,0.248},
	{0.905,0.319,0.601,-0.079,0.004,0.730,0.300,0.382,0.307,0.739,0.766,0.363,0.707,0.557,0.429,0.395,0.785,0.253,0.068,0.239},
	{0.596,0.229,0.567,0.334,0.458,0.327,0.114,0.627,0.447,0.394,0.912,0.857,0.746,0.692,0.604,0.611,0.250,0.917,0.846,0.931},
	{0.641,0.955,0.304,0.747,1.278,1.126,1.022,0.397,0.432,0.136,0.232,0.846,0.635,0.465,0.263,0.362,0.290,0.291,0.929,0.429},
	{0.761,1.366,0.749,-0.066,0.502,0.462,0.484,0.365,0.420,1.291,1.009,0.535,0.102,0.420,1.041,0.854,1.092,0.609,0.797,0.557},
	{1.126,1.007,0.667,-0.129,0.435,0.443,0.567,0.493,0.761,-0.015,0.273,0.816,0.586,0.795,0.240,0.661,0.567,0.945,0.538,0.271},
	{0.802,0.317,0.922,0.776,1.102,0.356,0.776,1.074,0.323,0.349,0.864,0.408,0.725,0.984,0.304,1.006,0.367,0.514,0.381,-0.136},
	{2.221,0.749,0.486,1.185,0.502,-0.007,0.812,-0.251,0.249,0.983,-0.353,0.345,0.354,0.073,0.301,0.156,-0.172,0.160,-0.090,-0.027},
	{1.059,0.525,-0.127,0.250,0.695,0.580,0.890,1.037,0.517,1.324,0.522,0.793,0.546,0.570,0.841,0.597,0.788,0.193,0.343,0.357},
	{0.930,1.044,0.218,0.157,0.788,0.902,0.107,0.056,0.273,0.381,0.555,0.321,0.582,0.342,0.439,1.119,0.663,0.111,0.747,0.891},
	{0.868,0.592,0.270,0.320,0.277,0.422,0.613,0.420,0.172,0.775,0.647,0.776,-0.105,0.835,0.451,0.699,0.772,0.133,-0.001,1.194},
	{0.333,0.318,0.501,1.017,0.582,0.889,1.066,0.743,0.076,1.053,0.442,0.397,0.644,0.644,1.191,0.361,0.503,0.494,0.149,0.439},
	{0.642,0.321,0.520,-0.072,0.953,0.397,0.300,0.166,0.177,0.866,0.088,0.741,0.356,0.454,-0.064,0.142,0.883,0.584,0.755,1.062},
	{1.303,0.492,0.160,0.248,1.024,0.256,0.953,0.443,0.153,0.342,1.085,1.272,0.105,0.750,1.042,0.533,0.979,0.932,0.725,1.359},
	{0.928,1.077,0.233,0.106,0.689,0.532,0.912,0.365,0.891,0.844,1.553,0.913,1.294,-0.100,0.199,0.232,0.655,0.874,0.863,1.030},
	{1.046,1.111,0.369,0.189,0.877,0.775,0.977,0.792,0.311,0.769,0.871,0.604,0.212,0.062,1.098,1.151,0.926,0.546,0.619,0.708},
	{0.935,0.274,0.583,0.793,0.976,0.686,0.700,0.313,0.596,0.960,1.280,0.670,0.094,0.687,0.581,0.688,1.170,0.449,0.168,0.815},
	{0.234,0.963,0.472,0.872,0.840,0.350,0.990,0.359,0.480,0.685,0.747,0.749,1.222,0.764,0.664,0.276,0.215,0.848,0.603,1.161},
	{1.276,1.161,0.800,0.451,0.574,0.324,0.464,0.442,-0.088,0.664,0.670,0.444,0.164,0.799,0.239,0.238,0.647,0.260,0.056,0.382},
	{1.383,0.266,0.965,0.195,0.902,0.227,0.690,-0.105,0.064,0.527,0.066,1.149,1.035,0.350,0.712,0.963,0.779,0.678,0.809,0.858},
	{1.506,0.499,0.599,0.025,0.043,0.690,0.521,0.363,0.063,0.250,0.471,0.596,0.837,0.204,0.302,0.561,0.586,0.377,0.146,0.873},
	{0.534,1.148,0.545,0.852,0.773,0.214,0.325,0.970,0.071,1.176,0.535,1.401,0.351,0.681,0.193,1.062,0.190,1.137,0.792,0.792},
	{0.912,1.203,0.130,0.500,-0.050,0.446,0.571,0.381,1.060,0.561,1.001,0.714,1.041,0.521,0.293,1.090,0.789,0.458,0.021,0.869},
	{2.050,0.147,0.708,0.876,0.220,0.853,0.033,1.057,0.334,0.744,0.896,0.552,0.842,0.747,0.357,0.842,0.248,0.595,0.850,0.754},
	{1.787,0.833,0.990,0.744,1.240,0.548,0.367,0.554,0.119,1.222,0.955,0.942,0.174,0.247,0.242,0.348,0.075,0.343,0.174,0.394},
	{0.251, 0.878, 1.034, 0.863, 0.211, 1.340, 0.563, 1.153, 0.464, 0.712, 0.572, 0.733, 0.666, 0.182, 0.706, 0.237, 1.028, 0.897, 0.495, 0.394}};
double w2_real[8][50] = {{-0.268,-0.099,0.132,0.251,0.104,0.298,-0.390,-0.228,-0.023,0.094,0.347,0.157,-0.211,-0.230,-0.330,-0.181,-0.041,0.101,0.046,0.203,0.512,-0.205,-0.296,-0.314,0.078,0.008,-0.130,0.328,0.263,0.062,0.320,0.627,-0.119,0.094,0.124,-0.203,0.517,-0.242,0.214,-0.032,-0.115,-0.160,-0.630,0.685,0.087,-0.325,-0.082,0.343,0.151,-0.654},
	{-0.533,-0.247,-0.033,0.060,0.352,-0.284,-0.162,0.056,-0.299,0.157,-0.354,0.199,-0.389,0.534,-0.110,-0.359,0.227,0.425,-0.022,0.039,-0.166,-0.058,-0.248,0.212,0.148,0.318,-0.105,-0.140,0.104,0.259,0.225,0.097,0.165,-0.250,0.433,-0.021,0.190,0.231,-0.234,-0.369,0.424,-0.106,0.060,-0.046,-0.145,-0.159,-0.379,-0.220,0.601,0.001},
	{0.547,-0.390,-0.170,-0.175,0.123,0.149,0.009,-0.212,0.286,0.080,0.231,0.297,-0.392,0.252,0.238,0.076,-0.132,0.228,0.661,-0.413,0.426,0.649,-0.281,0.104,-0.164,0.052,0.013,-0.375,0.146,0.076,-0.691,0.227,-0.154,0.204,0.020,-0.088,-0.298,-0.122,-0.435,0.451,-0.334,-0.295,0.414,-0.174,0.260,-0.118,-0.172,-0.048,-0.166,0.094},
	{-0.083,0.056,-0.051,0.388,-0.184,0.105,-0.243,-0.078,0.139,-0.336,0.186,0.241,0.524,0.039,-0.110,0.226,-0.047,-0.013,0.220,0.065,0.016,-0.491,-0.055,0.076,-0.013,0.311,-0.335,-0.016,0.161,0.052,0.113,0.015,-0.250,0.023,0.079,-0.454,0.197,-0.109,0.169,0.064,-0.111,-0.072,-0.165,-0.006,0.327,-0.245,0.176,-0.336,0.160,-0.169},
	{0.047,-0.025,-0.185,-0.114,-0.132,-0.358,-0.263,0.013,-0.170,0.053,0.416,-0.281,-0.421,-0.005,0.255,-0.150,0.210,-0.470,-0.124,0.244,-0.144,-0.379,0.012,0.336,-0.074,0.045,0.412,0.105,-0.220,-0.190,-0.152,0.135,-0.149,-0.101,0.083,0.601,-0.177,0.418,0.417,0.147,0.228,-0.039,-0.155,-0.267,-0.242,-0.144,-0.042,0.025,-0.026,0.217},
	{0.049,0.047,-0.036,0.215,0.555,0.505,0.131,-0.344,-0.146,-0.183,0.194,0.089,0.334,0.393,-0.251,-0.440,-0.274,0.043,0.554,-0.177,-0.264,-0.235,0.183,0.125,0.187,0.065,0.006,-0.028,-0.292,0.186,-0.054,0.456,0.335,-0.253,0.118,-0.516,0.179,-0.029,0.111,-0.035,0.182,0.316,0.133,-0.217,0.112,-0.320,-0.707,-0.255,0.013,-0.212},
	{-0.273,0.152,-0.311,0.395,0.087,-0.276,-0.242,0.215,-0.501,-0.184,-0.346,-0.048,0.543,0.005,0.095,-0.117,0.138,-0.004,0.113,0.198,-0.340,-0.847,-0.090,0.227,0.081,0.072,0.091,-0.632,0.485,0.417,0.092,0.360,0.254,-0.151,0.056,0.052,-0.160,0.121,0.187,-0.481,-0.019,0.509,-0.235,0.197,0.073,0.170,0.107,-0.650,0.363,0.300},
	{-0.144,-0.139,0.035,-0.015,-0.178,0.139,-0.252,0.105,0.240,-0.038,-0.169,-0.144,-0.041,-0.037,0.305,-0.173,0.392,-0.314,0.205,0.446,0.011,-0.326,0.035,0.052,0.459,0.075,0.070,0.166,-0.384,-0.128,0.270,-0.293,0.133,-0.214,-0.051,0.031,-0.193,-0.131,0.076,-0.038,0.070,-0.425,0.184,-0.420,0.373,0.065,0.094,-0.075,-0.339,0.300}};
double w2_imag[8][50] = {{0.558,-0.704,0.215,-0.159,-0.768,0.277,0.096,-0.263,-0.039,0.064,0.792,0.155,0.197,-0.103,0.234,0.815,0.193,-0.315,0.262,0.053,0.435,0.648,0.264,0.153,-0.477,-0.649,-0.131,0.692,-0.743,-0.611,-0.369,-0.592,0.081,-0.464,0.142,0.360,0.338,-0.169,0.095,0.780,-0.857,-0.844,0.730,-0.054,-0.207,-0.325,0.768,0.447,-0.843,-0.232},
	{-0.310,-0.116,0.282,-0.220,-0.047,-0.042,-0.164,-0.410,0.173,0.251,0.256,-0.093,-0.227,-0.505,-0.637,0.175,-0.124,-0.017,-0.111,0.361,0.783,0.455,0.143,0.115,0.405,0.049,0.265,0.062,0.389,0.107,0.598,0.205,-0.013,-0.153,-0.192,-0.337,0.532,-0.238,0.290,-0.102,-0.086,-0.096,0.040,0.614,-0.201,-0.726,-0.503,0.254,0.011,-0.483},
	{-0.617,-0.374,0.590,0.039,0.524,-0.919,-0.195,0.315,-0.061,-0.353,-0.149,-0.961,-0.949,0.412,0.714,-0.094,0.273,-0.001,0.304,0.346,-0.902,0.402,-0.316,0.025,0.337,-0.473,0.884,-0.045,0.179,-0.166,-0.462,-1.538,-0.133,-0.026,-0.177,0.475,-0.039,-0.151,0.017,0.140,0.280,0.636,-0.015,-0.413,-0.681,0.861,-0.844,-0.435,-0.466,0.437},
	{-0.277,-0.275,-0.197,-0.121,-0.540,0.611,-0.260,0.441,0.032,-0.478,0.089,0.603,-0.721,-0.218,0.509,0.469,0.031,0.243,0.542,-0.066,0.178,0.706,-0.740,-0.020,0.449,-0.199,0.174,-0.164,0.077,0.457,-0.140,-0.783,0.393,0.522,-0.121,-0.289,-0.258,-0.333,-0.438,0.419,-0.414,-0.579,0.361,0.401,0.269,0.075,0.378,-0.538,-0.163,0.438},
	{-0.092,0.573,-0.730,0.190,-0.243,0.443,-0.205,1.151,0.084,-0.296,-0.034,-0.492,0.935,-0.009,0.566,-1.030,0.137,-0.567,-0.661,0.122,-0.552,-0.098,0.258,0.066,-0.277,-0.125,0.792,-0.336,0.533,0.454,0.770,0.408,0.007,-0.400,0.048,-0.486,0.121,-0.250,0.467,-0.589,0.190,0.087,-0.860,0.012,-0.112,-0.438,-0.369,-0.494,0.813,0.179},
	{-0.606,-0.067,-0.013,-0.022,0.082,-0.873,0.695,0.792,0.311,-0.284,0.189,-1.378,-0.386,-0.630,0.257,-0.495,-0.269,0.240,0.378,-0.095,-0.478,-0.033,-0.388,-0.081,0.235,-0.169,-0.051,0.614,0.247,-0.538,-0.315,-1.638,-0.224,-0.150,-0.210,0.202,-0.189,0.345,0.570,0.386,0.115,0.085,-1.018,0.509,-0.390,-0.056,0.004,0.091,-0.691,0.182},
	{-0.011,0.275,-0.400,-0.346,-0.080,1.045,0.122,-0.442,-0.492,0.232,-0.330,1.199,0.406,-0.098,-1.117,0.007,-0.591,0.551,-0.216,-0.479,0.265,0.285,-0.137,-0.189,0.020,0.283,-0.073,-0.198,0.349,0.811,-0.525,1.345,0.583,0.818,0.209,-0.303,0.408,-0.423,-0.222,-0.193,0.141,0.485,0.245,0.894,0.109,-0.271,-0.102,0.776,0.378,-0.958},
	{-0.506, -0.254, -0.055, 0.196, 0.413, 0.377, 0.086, 0.122, 0.176, -0.361, -0.554, -0.197, 0.470, -0.205, 0.265, 0.019, -0.137, -0.654, 0.238, 0.291, -0.747, -0.297, 0.504, 0.016, 0.548, 0.645, -0.506, 0.028, 0.574, 0.478, -0.021, 0.385, -0.155, 0.109, -0.330, -0.537, -0.197, 0.212, -0.030, 0.181, -0.457, -0.052, 0.424, 0.069, -0.112, 0.077, 0.176, -0.412, 0.174, -0.958}};
